<?xml version="1.0"?>
<opencv_storage>
<stage5>
  <maxWeakCount>10</maxWeakCount>
  <stageThreshold>-1.3384249210357666e+00</stageThreshold>
  <weakClassifiers>
    <_>
      <internalNodes>
        0 -1 4337328 -8.8658258318901062e-03</internalNodes>
      <leafValues>
        -8.9380532503128052e-01 4.3813681602478027e-01</leafValues></_>
    <_>
      <internalNodes>
        0 -1 4820391 -4.3153260776307434e-05</internalNodes>
      <leafValues>
        3.3508151769638062e-01 -5.5651354789733887e-01</leafValues></_>
    <_>
      <internalNodes>
        0 -1 3810454 5.4242098703980446e-03</internalNodes>
      <leafValues>
        -7.3941457271575928e-01 3.0142021179199219e-01</leafValues></_>
    <_>
      <internalNodes>
        0 -1 2414213 -7.9721398651599884e-03</internalNodes>
      <leafValues>
        6.4476996660232544e-01 -3.0513939261436462e-01</leafValues></_>
    <_>
      <internalNodes>
        0 -1 5224110 -5.1660314202308655e-03</internalNodes>
      <leafValues>
        -8.9472335577011108e-01 1.9023114442825317e-01</leafValues></_>
    <_>
      <internalNodes>
        0 -1 2335052 8.0045357346534729e-02</internalNodes>
      <leafValues>
        -2.4786813557147980e-01 8.4645831584930420e-01</leafValues></_>
    <_>
      <internalNodes>
        0 -1 5912771 -2.0556922536343336e-03</internalNodes>
      <leafValues>
        3.5015937685966492e-01 -5.7559937238693237e-01</leafValues></_>
    <_>
      <internalNodes>
        0 -1 3127938 2.3908432573080063e-02</internalNodes>
      <leafValues>
        2.6848411560058594e-01 -7.3954689502716064e-01</leafValues></_>
    <_>
      <internalNodes>
        0 -1 3817683 6.6240545129403472e-04</internalNodes>
      <leafValues>
        -4.4172561168670654e-01 3.8397717475891113e-01</leafValues></_>
    <_>
      <internalNodes>
        0 -1 5483881 -2.7419981779530644e-04</internalNodes>
      <leafValues>
        6.0514205694198608e-01 -2.9477512836456299e-01</leafValues></_></weakClassifiers></stage5>
</opencv_storage>
